<?xml version="1.0"?>
<opencv_storage>
<my_svm type_id="opencv-ml-svm">
  <svm_type>C_SVC</svm_type>
  <kernel><type>LINEAR</type></kernel>
  <C>1.0000000000000000e-02</C>
  <term_criteria><epsilon>1.1920928955078125e-07</epsilon>
    <iterations>1000</iterations></term_criteria>
  <var_all>880</var_all>
  <var_count>880</var_count>
  <class_count>2</class_count>
  <class_labels type_id="opencv-matrix">
    <rows>1</rows>
    <cols>2</cols>
    <dt>i</dt>
    <data>
      1 2</data></class_labels>
  <sv_total>1</sv_total>
  <support_vectors>
    <_>
      -6.64652586e-02 -1.87859293e-02 -1.76094640e-02 3.23214754e-02
      -7.71280155e-02 1.61111206e-02 -1.21180201e-02 -3.11471317e-02
      8.69156513e-03 -6.47390727e-03 1.35853770e-03 2.95602567e-02
      9.98907257e-03 8.51412266e-02 1.80119164e-02 -1.96007006e-02
      -4.15175445e-02 2.80390307e-02 -5.43224402e-02 7.70940911e-03
      -3.03880521e-03 -2.50885356e-02 -6.16210140e-02 -3.45495343e-02
      -1.03471071e-01 5.04118837e-02 -3.09581440e-02 7.08110332e-02
      -3.47323455e-02 9.40119196e-03 1.80128440e-02 1.63789857e-02
      9.93612409e-03 -8.53167009e-03 3.96591723e-02 8.07808191e-02
      -1.61011685e-02 2.55643595e-02 7.82485493e-03 -7.25793168e-02
      -7.38087183e-05 6.62796050e-02 -1.59095377e-02 -2.53343321e-02
      1.06724678e-02 1.02557829e-02 6.20862981e-03 -5.99458292e-02
      1.01628266e-02 -2.69267000e-02 3.69350309e-03 2.63034436e-03
      -1.58315599e-02 -4.12075743e-02 9.34209384e-04 2.53670383e-02
      3.82179506e-02 -5.12999706e-02 -3.21476278e-03 -2.47245748e-02
      1.40284458e-02 -2.44348682e-02 -3.50466813e-03 -1.87973306e-02
      4.85776691e-03 2.25541703e-02 2.75172740e-02 1.38721466e-01
      5.10286540e-02 1.11083677e-02 -4.65276837e-02 5.08980313e-03
      8.44175834e-03 8.53743032e-03 -2.87894867e-02 7.52563309e-03
      -3.60007770e-02 -4.79955645e-03 -8.69024917e-02 4.70650196e-02
      6.21886216e-02 -4.15213220e-02 3.73028778e-02 2.29596011e-02
      -2.30620373e-02 8.08350928e-03 -2.35831942e-02 3.16477455e-02
      1.04943253e-01 4.46703173e-02 -1.25044314e-02 1.50647890e-02
      8.18225928e-03 -4.72489279e-03 -9.84920771e-04 1.96033367e-03
      -1.82867683e-02 1.27416626e-02 -1.19016254e-02 3.08543956e-03
      -6.48818677e-03 2.66417749e-02 -4.73138131e-02 3.51541862e-02
      3.26871574e-02 -4.15661633e-02 1.13445362e-02 -6.34662295e-03
      1.06389178e-02 -1.20488061e-02 -2.94063110e-02 -1.88774411e-02
      4.23191972e-02 2.27783620e-02 3.67596373e-02 -2.73611527e-02
      -4.39839874e-04 -3.01750358e-02 5.28612882e-02 -7.14388713e-02
      3.84669751e-02 1.28155295e-02 -9.88176093e-03 -3.85573916e-02
      -1.25126364e-02 6.93450542e-03 -8.06354433e-02 5.40618077e-02
      -1.51114992e-03 -6.36559278e-02 3.10646254e-03 4.25020121e-02
      6.44697025e-02 4.62659821e-03 3.44329104e-02 3.35978158e-02
      4.02963869e-02 8.09096172e-03 -3.52576561e-02 -8.05987045e-02
      -3.97539772e-02 6.70281425e-03 -2.82890163e-02 -3.90422009e-02
      8.48196540e-03 5.57902902e-02 1.51418718e-02 1.85425840e-02
      2.30613258e-02 -9.05910786e-03 -2.77229454e-02 4.02492583e-02
      7.10359588e-02 -2.90033575e-02 1.23296142e-01 1.67316571e-02
      -1.69476382e-02 -4.86222729e-02 2.30187383e-02 1.10758264e-02
      -3.41435894e-02 -1.15294626e-03 1.09061105e-02 -6.22123219e-02
      6.48407545e-03 1.07637299e-02 -3.81558426e-02 2.69124359e-02
      -1.43283019e-02 -5.15066795e-02 1.82993412e-02 -2.88295820e-02
      -4.13679816e-02 7.26872263e-03 -2.46025044e-02 1.90444179e-02
      2.19794717e-02 2.30092909e-02 4.70438488e-02 2.52031125e-02
      9.89511702e-03 -9.82349552e-03 -8.27733614e-03 -2.01027878e-02
      -7.35574290e-02 -7.27254003e-02 -7.18544424e-02 -1.03684207e-02
      -4.23258431e-02 -4.43509892e-02 -1.47646870e-02 -6.84887264e-03
      -3.43151689e-02 5.65992668e-02 1.29769593e-02 -1.59080885e-02
      -3.46032088e-03 1.32262893e-02 4.59784381e-02 2.58637108e-02
      -1.03816353e-02 -3.70559581e-02 -2.56137252e-02 9.76535119e-03
      -3.23489457e-02 3.54139507e-02 1.80427246e-02 -8.51907302e-03
      -2.54755560e-02 -6.65048091e-03 -2.44464586e-03 7.39287818e-03
      2.81166397e-02 4.44792956e-02 3.06049604e-02 -2.08504777e-02
      2.40084045e-02 1.31624052e-02 1.33463340e-02 -1.57047901e-02
      -2.04846729e-02 7.43203908e-02 -2.31153872e-02 -2.04314031e-02
      -5.34429438e-02 -5.05422950e-02 -1.54428817e-02 1.47427770e-03
      -1.26337677e-01 -4.34299000e-02 7.27916602e-04 5.75405639e-03
      5.12934327e-02 -2.04578191e-02 -2.34289803e-02 -2.63765138e-02
      6.63551094e-04 -2.07576454e-02 2.84078829e-02 1.53031386e-02
      -4.18734290e-02 2.24918723e-02 -2.91674081e-02 5.81943877e-02
      -2.54445076e-02 1.34678455e-02 -2.87250569e-03 -2.62807142e-02
      6.66828677e-02 2.84037031e-02 -4.94639687e-02 3.89701389e-02
      -2.05421895e-02 -2.14274265e-02 3.37048322e-02 -3.68327051e-02
      -4.58996221e-02 -5.13148196e-02 7.52707273e-02 -8.97542760e-03
      3.07691526e-02 4.05959338e-02 2.95707155e-02 1.49320457e-02
      1.02766581e-01 -1.05194598e-01 5.00491410e-02 5.71802817e-02
      2.80367285e-02 9.08590853e-02 -5.41186817e-02 1.44277904e-02
      1.30457386e-01 -9.30186827e-03 -5.69688063e-03 5.38137592e-02
      -4.51313369e-02 -2.33312603e-02 6.58402145e-02 4.84243408e-02
      3.43546979e-02 -5.00315055e-02 -4.03870642e-03 3.96107845e-02
      -3.31048742e-02 -2.40106247e-02 -2.27951378e-01 -9.58379507e-02
      -4.09529507e-02 -6.93015680e-02 -9.29709338e-03 -1.05814403e-02
      -5.40652946e-02 -9.18873772e-03 5.14983013e-02 -5.98769449e-02
      -7.55497739e-02 -5.35406619e-02 4.60728966e-02 -7.65139423e-03
      8.84377658e-02 4.55895392e-03 -6.32004905e-03 6.02177531e-03
      2.09808536e-02 5.23484685e-02 -4.64511216e-02 -1.85109824e-02
      1.69906877e-02 -9.14942995e-02 7.73709491e-02 -7.29240403e-02
      -5.56873754e-02 2.55505741e-02 -2.19895970e-02 -4.18269001e-02
      4.12680581e-02 8.05598870e-02 6.13522774e-04 -8.69282708e-02
      2.01445771e-04 1.28325783e-02 1.01342477e-01 -6.76099490e-03
      3.30767408e-02 -3.60561386e-02 -3.65452282e-02 -2.27358397e-02
      5.04186749e-02 -1.56353302e-02 6.12297747e-03 1.44692603e-02
      3.20212133e-02 -4.06207815e-02 3.61701660e-02 1.51990885e-02
      6.56716749e-02 9.00180638e-03 3.24163809e-02 1.02812117e-02
      -5.15548373e-03 -4.58652573e-03 -4.63682972e-02 -1.28025105e-02
      1.08684478e-02 -3.52696190e-03 6.38906956e-02 4.82866392e-02
      -4.85216007e-02 6.31812885e-02 -2.89455988e-02 -3.08316350e-02
      -1.06661789e-01 -3.91151793e-02 4.67923470e-02 -3.55073810e-02
      -2.38420721e-02 -8.32558125e-02 -7.47994334e-02 3.44947278e-02
      -1.57978237e-02 6.24626763e-02 4.22474779e-02 5.65470234e-02
      1.26552535e-03 2.94167269e-02 -2.21074764e-02 9.95021593e-03
      4.33936249e-03 7.97153711e-02 1.03055932e-01 -7.82612860e-02
      3.36339362e-02 4.82752919e-02 1.92506090e-01 -5.74958548e-02
      3.49569879e-02 1.78561844e-02 5.26149757e-02 5.51476255e-02
      4.88513261e-02 -3.80276069e-02 5.91899641e-02 2.31208913e-02
      9.14980993e-02 -3.16411965e-02 -5.49850278e-02 -1.09754354e-01
      1.56206321e-02 4.00926918e-02 -4.19679619e-02 -3.56744081e-02
      -4.26260903e-02 3.70747373e-02 3.98977846e-02 1.59199890e-02
      -1.21029541e-01 1.01898804e-01 1.04331642e-01 -3.84418778e-02
      3.15564132e-04 3.72361839e-02 -3.84852029e-02 -7.65047362e-03
      7.55383745e-02 7.73272738e-02 -9.80029851e-02 -5.91866821e-02
      -4.35773842e-02 -2.30120141e-02 -5.07624522e-02 5.27717657e-02
      4.54093516e-03 -7.64892921e-02 3.22876871e-03 8.72642559e-04
      -3.33482660e-02 -1.52731026e-02 4.10689637e-02 -1.87574215e-02
      -4.01458926e-02 7.18445033e-02 1.81450229e-02 -4.03637663e-02
      8.65799095e-03 4.67701163e-03 -1.95106398e-02 -1.28525849e-02
      4.36091237e-02 3.12684067e-02 1.27023850e-02 -1.18545284e-02
      -3.33535112e-02 -3.58893499e-02 1.04604186e-02 4.60463949e-02
      -2.67605931e-02 8.34370963e-03 1.06071513e-02 -7.97289982e-03
      6.78818822e-02 -6.19938225e-02 -5.14288172e-02 -2.14109477e-02
      -3.14819776e-02 -7.64345005e-02 -8.81354790e-03 -2.61689760e-02
      3.88568416e-02 2.58739553e-02 9.75102186e-02 3.24662440e-02
      3.68556157e-02 -3.27799655e-02 -3.45621631e-02 1.81406699e-02
      3.16899009e-02 8.95297304e-02 -5.17976843e-03 -1.00216463e-01
      1.68421809e-02 -4.63107862e-02 6.54680505e-02 -4.80363145e-02
      6.74289167e-02 5.63137373e-03 -5.74311055e-02 -3.76957171e-02
      1.45895043e-02 -3.74811664e-02 -3.26109380e-02 -4.26093526e-02
      2.15506442e-02 -6.03742478e-03 -4.60804347e-03 -2.42568832e-02
      3.61804329e-02 -4.02350500e-02 9.09399241e-03 5.27779758e-03
      1.04826249e-01 -6.68056607e-02 -4.17159908e-02 3.55520360e-02
      -1.17038086e-01 3.88836525e-02 -9.29218158e-02 -1.07329050e-02
      1.72459576e-02 3.40897888e-02 -4.38012555e-02 3.11828181e-02
      2.41811760e-02 2.51257587e-02 -3.03777251e-02 5.66150025e-02
      -1.22004645e-02 -7.31486548e-03 -5.14237396e-02 -8.81119631e-03
      -6.26362339e-02 -4.30716723e-02 3.13308127e-02 -5.87689597e-03
      -4.92383800e-02 2.20929291e-02 -3.61180305e-02 -1.04169749e-01
      -1.86979007e-02 -1.65775735e-02 -3.31771299e-02 4.39379085e-03
      1.01774912e-02 6.45140335e-02 -2.47071963e-02 3.93191464e-02
      -1.53821399e-02 -7.89543055e-03 -6.78685233e-02 5.33633791e-02
      8.37492943e-03 -1.58383476e-03 -1.16973758e-01 6.05178960e-02
      -4.47023623e-02 6.07747361e-02 -1.12785017e-02 -4.09342386e-02
      1.67765126e-01 -4.68633771e-02 -3.72782722e-02 8.81819800e-02
      -3.41710565e-03 -5.49433827e-02 -9.73753259e-03 3.51091325e-02
      -4.87939408e-03 -1.22195920e-02 3.24173942e-02 2.43838076e-02
      -3.46023776e-02 3.64512689e-02 -2.59824153e-02 -4.23926748e-02
      -1.86058767e-02 4.03080806e-02 -5.54506527e-03 3.73802297e-02
      4.54847235e-03 -1.06486976e-02 3.27935331e-02 1.50206257e-02
      3.31415678e-03 3.79424840e-02 7.52959400e-02 5.87261282e-03
      7.07844347e-02 8.12485740e-02 -3.20120454e-02 -1.42331223e-03
      -1.81447156e-02 2.87538189e-02 -6.35613427e-02 4.46110032e-02
      -6.47926182e-02 -4.74788845e-02 -6.41984493e-02 -6.77146837e-02
      1.54546462e-02 -2.53774486e-02 -6.41741510e-03 -7.09422398e-03
      1.05187790e-02 8.08812231e-02 -1.31148072e-02 -6.54937141e-03
      -3.62901054e-02 2.55884533e-03 1.63337328e-02 4.01538871e-02
      -3.31701688e-03 1.10599779e-01 -5.26152179e-03 6.68796599e-02
      3.91234085e-02 -2.92013977e-02 -8.48434214e-03 6.95894808e-02
      2.09763981e-02 7.53563717e-02 2.56609619e-02 6.18948974e-03
      3.68419215e-02 3.99948284e-02 2.05844827e-02 3.90311964e-02
      -5.86204156e-02 1.33224251e-02 3.18400785e-02 2.28035115e-02
      2.55382992e-02 -5.74311391e-02 -2.69412086e-03 -8.83664861e-02
      5.85678332e-02 -1.34224968e-03 4.08488289e-02 2.58450471e-02
      2.60855816e-02 7.56369904e-02 2.09031021e-03 -1.77352782e-03
      -2.53541861e-02 2.15389077e-02 -3.34455370e-04 -1.06174452e-03
      -6.95098564e-02 7.75619447e-02 -7.85994157e-02 8.82555470e-02
      -2.04669666e-02 5.76264523e-02 -5.77884354e-02 3.34050022e-02
      2.88546178e-02 -1.78124383e-02 5.79313841e-03 -4.34070788e-02
      2.97520263e-03 3.20594721e-02 2.63154898e-02 2.68955473e-02
      6.08319417e-02 -9.65977535e-02 3.57195735e-02 -5.56228980e-02
      1.77643988e-02 3.29650901e-02 4.14717495e-02 5.55023514e-02
      -3.37503850e-02 4.06071730e-03 3.68394367e-02 -2.60710809e-02
      6.75472170e-02 9.42148194e-02 5.75312646e-03 -3.61994952e-02
      9.67346597e-03 7.61460420e-03 -2.88884323e-02 4.62191477e-02
      -5.22266962e-02 -3.58878262e-02 2.80506685e-02 -2.46616341e-02
      -1.61876511e-02 4.16591531e-03 9.06417985e-03 1.27057144e-02
      6.88311607e-02 4.31949180e-03 4.62208322e-04 -2.94261258e-02
      3.18771191e-02 -8.10234398e-02 -5.91827296e-02 -1.39506962e-02
      -1.08643677e-02 -2.83118840e-02 -1.21056819e-02 -2.42620520e-03
      3.51839066e-02 1.01335126e-03 2.91632935e-02 -5.36094606e-02
      3.68776941e-03 1.49014266e-02 -2.09919848e-02 -2.13213954e-02
      -1.69356801e-02 -1.08053647e-02 5.48032522e-02 7.38314614e-02
      2.79278476e-02 3.82860564e-02 -2.36414908e-03 6.45925179e-02
      3.96407545e-02 -7.94554204e-02 6.56543002e-02 1.76684950e-02
      6.56871349e-02 1.18283942e-01 2.24848688e-02 -7.43560493e-02
      1.93433985e-02 -4.04620878e-02 -1.89530328e-02 -1.20214380e-01
      -1.17845312e-02 3.28016989e-02 -5.29089049e-02 -6.93933144e-02
      1.10144407e-01 -7.64459595e-02 2.58404631e-02 5.59507571e-02
      3.99356745e-02 -1.34115173e-02 4.01637740e-02 5.64275077e-03
      -5.97650856e-02 3.12819146e-02 -1.30675197e-01 -2.46813260e-02
      -2.47443095e-02 2.83700740e-03 2.82423794e-02 2.20984686e-02
      -4.14273776e-02 6.81319609e-02 -2.28391197e-02 -9.52090994e-02
      1.99334994e-02 -2.05967538e-02 -3.03356230e-01 -9.29287747e-02
      -3.82159688e-02 -2.39558816e-02 -1.15014834e-03 -3.50979296e-03
      1.98050141e-02 -2.45566647e-02 -9.53889859e-04 -6.24149665e-03
      8.31491575e-02 -6.10547215e-02 1.24659427e-01 -6.23682961e-02
      -1.65616777e-02 -4.28858325e-02 -6.05087951e-02 6.25239173e-03
      -3.91179211e-02 -3.61036658e-02 -3.06293257e-02 -4.46243621e-02
      -2.47603685e-01 1.14388615e-02 4.73583415e-02 -1.48786288e-02
      -1.44328857e-02 -4.45373766e-02 9.72549990e-02 -1.08496030e-03
      1.17393136e-02 5.86940302e-03 4.61336225e-03 -9.39971767e-03
      1.70396082e-02 -3.76015715e-02 1.42102186e-02 3.24707711e-04
      -6.06197910e-03 5.37551381e-02 4.24493998e-02 4.85218577e-02
      3.56565975e-02 1.51336882e-02 2.91592302e-03 3.45724970e-02
      7.40250498e-02 3.12439967e-02 4.27351929e-02 3.68864425e-02
      6.43775892e-03 -4.73202057e-02 -4.50765938e-02 -2.15710644e-02
      -5.73327299e-03 -8.39562714e-03 -3.72067722e-03 3.84209538e-03
      7.38935312e-03 -9.92780784e-04 2.15227883e-02 3.62346955e-02
      2.75106803e-02 6.68185204e-03 3.23708318e-02 4.04076539e-02
      6.22888990e-02 1.03642279e-02 5.63459750e-03 -1.93612631e-02
      -2.65595261e-02 -1.72758121e-02 -1.98025499e-02 4.13814299e-02
      1.74502730e-02 -2.75968052e-02 -5.20420447e-02 -1.68548226e-02
      -1.56994648e-02 2.36733388e-02 -7.20515475e-02 6.04541264e-02
      -1.90058537e-02 6.30503371e-02 4.91727181e-02 -6.34793949e-04
      -2.65879817e-02 5.38556948e-02 -7.12365028e-04 -4.53720316e-02
      3.81907425e-03 -1.31515980e-01 3.39464583e-02 5.12645170e-02
      6.08600536e-03 -2.97173411e-02 -6.11491576e-02 1.30905258e-02
      -1.32104391e-02 -3.96941118e-02 8.55655894e-02 -4.93993126e-02
      3.91840339e-02 1.74511261e-02 4.32449020e-02 1.62641685e-02
      2.00378615e-02 2.71555576e-02 1.49549302e-02 -3.81853711e-03
      -9.01180655e-02 -1.05979349e-02 -9.53692570e-02 -2.95671262e-02
      -3.43837477e-02 8.98228213e-03 -2.10845144e-03 -1.55838288e-03
      -2.47620642e-02 7.05170957e-03 3.36212851e-02 9.18128248e-03
      -4.83563654e-02 3.93534228e-02 2.80685141e-04 -1.48439286e-02
      -2.37280428e-02 -5.24722375e-02 -7.96592236e-02 -1.92889255e-02
      7.30368774e-03 1.32691320e-02 6.34645894e-02 1.23470677e-02
      2.62038819e-02 1.31168226e-02 1.32112820e-02 7.55567802e-04
      2.08007731e-03 1.32036931e-03 -1.25159346e-03 5.84385209e-02
      1.29418187e-02 -2.52618417e-02 3.41856480e-02 1.59410331e-02
      -3.04655991e-02 2.01904178e-02 2.52609029e-02 -3.95000279e-02
      -5.51626552e-03 -1.31315868e-02 2.79697962e-02 -2.18681712e-02</_></support_vectors>
  <decision_functions>
    <_>
      <sv_count>1</sv_count>
      <rho>4.6044589125245799e-01</rho>
      <alpha>
        1.</alpha>
      <index>
        0</index></_></decision_functions></my_svm>
</opencv_storage>
