<?xml version="1.0"?>
<opencv_storage>
<my_svm type_id="opencv-ml-svm">
  <svm_type>C_SVC</svm_type>
  <kernel><type>LINEAR</type></kernel>
  <C>1.0000000000000000e-02</C>
  <term_criteria><epsilon>1.1920928955078125e-07</epsilon>
    <iterations>1000</iterations></term_criteria>
  <var_all>600</var_all>
  <var_count>600</var_count>
  <class_count>2</class_count>
  <class_labels type_id="opencv-matrix">
    <rows>1</rows>
    <cols>2</cols>
    <dt>i</dt>
    <data>
      1 2</data></class_labels>
  <sv_total>1</sv_total>
  <support_vectors>
    <_>
      -5.96052781e-03 1.44265201e-02 1.33511592e-02 -1.99057497e-02
      7.59743974e-02 5.65453507e-02 1.29988194e-02 -9.02325194e-03
      -1.26001798e-02 -1.73731018e-02 -4.24961857e-02 -7.61449477e-03
      2.26860493e-02 -3.54819298e-02 2.16911491e-02 8.44920799e-02
      7.57264048e-02 2.03815028e-02 1.04924470e-01 6.58917651e-02
      -6.95614144e-03 -3.41531850e-04 3.47940177e-02 -2.38800421e-02
      -3.99937760e-03 -6.58510020e-03 7.43302181e-02 4.75967824e-02
      -2.13458203e-02 -2.80964486e-02 -6.20917268e-02 -3.19886617e-02
      -9.37533379e-03 -5.19931689e-02 -1.91380400e-02 7.98654407e-02
      -3.37492004e-02 7.68750757e-02 2.61179768e-02 -1.80525016e-02
      -5.69058508e-02 5.11183478e-02 -6.49817064e-02 5.36593958e-04
      -3.81106585e-02 1.68474481e-01 5.23327477e-02 4.64638397e-02
      -2.51750611e-02 -1.03178374e-01 -4.95640747e-02 1.55801466e-02
      -5.85789531e-02 -5.26227290e-03 -3.02134231e-02 5.81335835e-02
      -4.60270867e-02 -2.92520337e-02 -1.07249729e-01 6.14303499e-02
      2.05158040e-01 4.54480127e-02 5.38172275e-02 2.52853706e-02
      2.81721577e-02 -2.14731432e-02 1.59760413e-03 3.78668495e-02
      1.88547280e-02 -3.80337313e-02 2.82768980e-02 7.98180699e-02
      -5.54831289e-02 -1.22830793e-02 1.54557768e-02 -8.68511200e-02
      -4.94112447e-02 -5.96999638e-02 2.47672256e-02 -1.87781882e-02
      -6.45316485e-03 5.93914352e-02 -6.16386309e-02 9.56587419e-02
      6.22170493e-02 3.87276411e-02 -5.96653763e-03 1.88395195e-02
      -1.45396069e-02 -4.53616418e-02 3.51684131e-02 -6.21969961e-02
      4.73010913e-02 4.27316837e-02 -3.32594570e-03 -8.42508336e-04
      -7.19999373e-02 1.31317014e-02 -9.58715975e-02 -3.75115424e-02
      -8.10622275e-02 5.69214672e-03 -5.23031652e-02 5.16048819e-03
      9.09257233e-02 4.22374494e-02 -8.84824768e-02 -6.22707419e-02
      3.00056990e-02 7.62394890e-02 8.06986839e-02 -2.50549931e-02
      -6.87867124e-03 5.12676798e-02 9.02579874e-02 3.55156995e-02
      -9.17028710e-02 -6.05761586e-03 1.82722025e-02 1.39275203e-02
      -1.13319807e-01 2.45720726e-02 -1.05116349e-02 -9.69945081e-03
      -3.82705815e-02 -9.85523388e-02 4.86023426e-02 1.59274358e-02
      -7.59917945e-02 -1.31072579e-02 -5.36743440e-02 -9.48165916e-03
      -5.82439415e-02 -3.33395861e-02 6.79890532e-03 -6.69513941e-02
      3.98547240e-02 -1.21044153e-02 2.10173763e-02 -7.94671103e-02
      -3.25093418e-02 -1.76020358e-02 -6.10907236e-03 -3.64834405e-02
      7.19477162e-02 -4.31665126e-03 -5.07023744e-03 -3.86812799e-02
      1.04665020e-02 3.08655612e-02 6.21594116e-03 5.55201247e-02
      2.00941414e-03 -2.07631905e-02 -1.84838811e-03 6.77002892e-02
      -3.55639756e-02 1.92424990e-02 -3.19717377e-02 -8.17743223e-03
      1.18990634e-02 -6.96862116e-02 4.08396609e-02 -4.74824011e-03
      6.45653382e-02 2.10162606e-02 6.94963383e-04 1.21089742e-01
      -4.20291983e-02 -3.78184579e-02 -1.86076872e-02 -9.46230162e-03
      3.69003564e-02 1.42150700e-01 -6.94833770e-02 1.28756613e-01
      4.28930484e-03 -1.24534480e-01 1.79572478e-02 -1.27260953e-01
      -4.47126329e-02 1.01270601e-02 1.39951855e-02 4.84437570e-02
      1.79111585e-02 3.59721715e-04 -2.68060565e-02 6.07422702e-02
      8.91362503e-02 -2.75245067e-02 -5.77099286e-02 5.39628556e-04
      5.41620590e-02 1.66392475e-02 4.88638841e-02 -3.70465405e-02
      -2.21640598e-02 -1.22081265e-02 -3.35379690e-02 -1.45711284e-02
      6.18539974e-02 5.86358970e-03 2.73048803e-02 -2.28679627e-02
      -2.68279407e-02 3.29846554e-02 -5.79320546e-03 2.31235307e-02
      7.36224605e-03 2.08923183e-02 -2.20492873e-02 2.78559979e-03
      -1.57973580e-02 -4.22251560e-02 -5.52118793e-02 -8.96435231e-02
      -3.19759361e-02 2.92829107e-02 5.41024702e-03 5.33312000e-03
      3.14226411e-02 -5.52897640e-02 -6.06201887e-02 6.33400232e-02
      4.67122812e-03 -1.49087980e-02 6.74226554e-03 -2.54139863e-02
      4.13361304e-02 9.22031514e-03 1.73306763e-02 -1.17506813e-02
      1.73037369e-02 -7.45776901e-03 1.71059445e-02 2.46770307e-02
      3.63147222e-02 -4.80256863e-02 3.29249762e-02 -2.67296191e-02
      -2.30780561e-02 1.97730679e-02 -2.01430591e-03 -5.93555979e-02
      -5.77232465e-02 6.79853186e-03 -6.02611434e-03 -2.43418105e-02
      -3.92702520e-02 6.50256053e-02 -6.98711677e-03 4.19017747e-02
      1.15049340e-01 -9.26037226e-03 -7.57702664e-02 -4.44326997e-02
      2.43433435e-02 4.89488393e-02 2.85932701e-02 -4.39648591e-02
      -7.93823320e-03 -6.52890606e-03 -1.34726018e-02 -2.34713107e-02
      1.13830611e-01 2.12028418e-02 -4.40626405e-02 -3.30221839e-02
      -4.75409105e-02 1.29613522e-02 7.84089882e-03 2.42974330e-03
      -5.86731173e-02 1.45964026e-02 5.28902672e-02 -5.24836779e-02
      7.83578455e-02 -4.51454930e-02 1.59314554e-02 6.01430843e-03
      6.52695522e-02 1.25749293e-03 -1.33796427e-02 -5.81081621e-02
      -2.22780053e-02 -8.35453793e-02 7.21278973e-03 -4.77403365e-02
      -2.59118881e-02 3.98180597e-02 -6.62972312e-03 6.94075301e-02
      -2.25973334e-02 -3.81590687e-02 -2.24666651e-02 9.87035036e-02
      -3.36013399e-02 7.05600306e-02 2.35223901e-02 4.74550249e-03
      9.86685529e-02 -4.29993309e-02 -6.99221790e-02 -3.50355208e-02
      -2.69086026e-02 5.21734096e-02 -3.69696021e-02 -4.12905477e-02
      7.18100592e-02 1.03518926e-02 -8.72511342e-02 1.09873950e-01
      -5.96897975e-02 -2.23941077e-02 -3.81209748e-03 7.31062097e-03
      -3.19746211e-02 2.13914923e-02 -3.45967035e-03 -3.15449224e-03
      -8.75609741e-03 -4.75835018e-02 4.73831929e-02 -3.52805890e-02
      1.36697330e-02 -3.37370224e-02 2.83447411e-02 -1.22267911e-02
      -1.22051146e-02 -1.16841337e-02 7.50207761e-03 -2.79852352e-03
      -8.49125814e-03 -1.23369442e-02 -1.19459905e-01 5.08037535e-03
      -9.76998955e-02 -5.90834543e-02 -4.35385518e-02 -5.58141805e-02
      -2.11826302e-02 -5.66086285e-02 -3.29597630e-02 4.68858937e-03
      -4.85275239e-02 1.08748615e-01 -1.63098410e-01 -1.12311170e-01
      -2.08118130e-02 6.24262467e-02 -9.89275146e-03 4.74723540e-02
      7.69808218e-02 -7.73212174e-03 -8.09311122e-02 -2.03067660e-02
      2.42339391e-02 -3.14585157e-02 4.05794270e-02 -1.32177547e-02
      1.24711044e-01 1.43943503e-02 3.87884937e-02 5.84672987e-02
      -5.61743528e-02 4.21523582e-03 -2.68599112e-02 -1.03953473e-01
      -9.39679369e-02 8.23581498e-03 1.95334237e-02 -6.96689822e-03
      1.28432289e-02 3.54144834e-02 3.23429219e-02 -1.75923016e-02
      -1.91153139e-02 -1.47040943e-02 -1.54915573e-02 1.55221913e-02
      1.43259829e-02 -5.40127195e-02 9.99905914e-02 -2.43794061e-02
      -2.00320641e-03 -1.60098057e-02 2.28296109e-02 -2.68511232e-02
      4.12687063e-02 -2.03172695e-02 -3.71341854e-02 6.16860352e-02
      -1.07974967e-03 -7.47315213e-02 5.84029369e-02 1.48069495e-02
      1.15128510e-01 4.99770157e-02 3.69365923e-02 6.35219272e-03
      -5.56639060e-02 4.83023040e-02 -1.49276610e-02 -8.09237435e-02
      -1.77451838e-02 -5.74010685e-02 -2.60442439e-02 -2.47592665e-03
      -2.43830904e-02 -4.46618237e-02 3.89372818e-02 2.98715755e-02
      1.30490377e-03 4.82241884e-02 -4.81930003e-02 -5.40740676e-02
      -8.96501541e-02 6.20057471e-02 -5.12334593e-02 -3.89573015e-02
      6.90835416e-02 4.86883856e-02 5.51520400e-02 4.32218537e-02
      4.78417240e-02 7.66114816e-02 5.51590025e-02 5.61786182e-02
      7.11999387e-02 7.00392649e-02 7.24387839e-02 1.84484664e-02
      1.23194419e-01 6.65772930e-02 -8.01036581e-02 -7.00602159e-02
      7.78824696e-03 1.29487310e-02 2.68109776e-02 4.17487547e-02
      -4.68805358e-02 1.56460200e-02 -7.11736158e-02 -1.29035739e-02
      -3.31023075e-02 -7.04997256e-02 -4.72131371e-02 -6.60334900e-02
      -5.44314533e-02 8.80952999e-02 1.57090630e-02 5.85712306e-03
      1.58698373e-02 1.52032711e-02 5.50655387e-02 4.19238880e-02
      6.71710670e-02 -2.79716980e-02 -5.81241883e-02 -1.16462661e-02
      -5.46465069e-02 -7.88502395e-02 8.98122564e-02 -1.23999128e-02
      5.48650883e-02 -2.11800784e-02 8.16454552e-03 4.96719405e-02
      3.65488678e-02 -4.39063646e-02 -6.75130785e-02 -5.81625365e-02
      -9.05981436e-02 3.76986191e-02 1.39695620e-02 -3.21648642e-02
      1.07325176e-02 2.79301032e-02 1.93723235e-02 -1.74491070e-02
      -3.83187132e-03 -5.90010397e-02 7.19137341e-02 4.74446453e-02
      -2.97227185e-02 -9.40888226e-02 -3.65418978e-02 9.44771469e-02
      6.55223802e-02 4.79814485e-02 3.25273275e-02 3.72623913e-02
      -2.50532385e-02 -6.81871176e-03 1.43333767e-02 2.25455165e-02
      5.96294180e-02 -1.08128898e-02 -1.14995660e-02 3.82500514e-02
      4.21374887e-02 5.61222900e-03 -9.16372016e-02 -4.63342629e-02
      -2.12950297e-02 -6.19550347e-02 9.00555402e-02 -6.93822280e-02
      6.39085239e-03 -2.49736886e-02 -5.84481917e-02 2.55711824e-02
      -4.41171322e-03 1.03850625e-01 4.74940464e-02 1.48979155e-02
      -4.71906550e-02 1.48337679e-02 -1.01567432e-01 4.26971987e-02
      -3.26152630e-02 -2.45336276e-02 3.12305335e-03 -2.94880662e-02
      4.43883687e-02 -1.51501624e-02 -6.35312200e-02 -6.27628118e-02
      -1.19571609e-03 1.09690451e-03 -1.37665002e-02 -1.97944567e-02
      -6.09991327e-02 -3.88537981e-02 3.73043343e-02 3.24567482e-02
      -1.82161722e-02 -7.83223752e-03 1.08917551e-02 5.85759506e-02
      1.92343015e-02 1.30959563e-02 -4.90862913e-02 -6.91372603e-02
      3.92211601e-02 -3.81381921e-02 4.66505699e-02 8.21367651e-03
      1.08726686e-02 4.50891629e-02 1.17378505e-02 -5.72971441e-02
      2.12588515e-02 1.74280312e-02 -3.82245891e-02 -9.72146541e-03
      6.30338788e-02 -3.48884575e-02 -4.40694466e-02 -7.12938607e-02
      1.11623093e-01 2.02861801e-02 -6.92795292e-02 5.33967577e-02
      -6.33008704e-02 4.57546972e-02 9.43142921e-03 5.34388646e-02
      5.40665388e-02 -4.27378640e-02 -8.18152726e-02 -9.00748298e-02
      -2.30610110e-02 -5.80574796e-02 1.97881851e-02 -3.69232930e-02
      2.71650497e-03 1.10339690e-02 -5.00922883e-03 -3.46006714e-02
      5.44136241e-02 3.50019932e-02 7.74130672e-02 5.96751273e-02
      2.27327459e-02 -6.68340847e-02 6.29825220e-02 7.67226070e-02
      -1.24427807e-02 7.56031275e-02 -8.02729055e-02 4.16348735e-03
      3.40271182e-02 4.07895818e-02 -6.37653023e-02 5.41197089e-03
      2.38534603e-02 6.71232194e-02 6.12568967e-02 8.22952390e-03</_></support_vectors>
  <decision_functions>
    <_>
      <sv_count>1</sv_count>
      <rho>3.8647427744478180e-01</rho>
      <alpha>
        1.</alpha>
      <index>
        0</index></_></decision_functions></my_svm>
</opencv_storage>
